net
{
	propagationenginegenerator1791944048146838126L = "edu.ucla.belief.approx.BeliefPropagationSettings@69fa10da";
	recoveryenginegenerator6944530267470113528l = "edu.ucla.util.SettingsImpl@20688e91";
	node_size = (130.0 55.0);
	huginenginegenerator3061656038650325130L = "edu.ucla.belief.inference.JoinTreeSettings@21588809";
}

node B
{
	states = ("b0" "b1" );
	position = (106 -212);
	diagnosistype = "AUXILIARY";
	DSLxSUBMODEL = "Root Submodel";
	ismapvariable = "false";
	ID = "variable2";
	label = "B";
	DSLxEXTRA_DEFINITIONxDIAGNOSIS_TYPE = "AUXILIARY";
	excludepolicy = "include whole CPT";
}
node A
{
	states = ("a0" "a1" );
	position = (303 -216);
	diagnosistype = "AUXILIARY";
	DSLxSUBMODEL = "Root Submodel";
	ismapvariable = "false";
	ID = "variable0";
	label = "A";
	DSLxEXTRA_DEFINITIONxDIAGNOSIS_TYPE = "AUXILIARY";
	excludepolicy = "include whole CPT";
}
node H
{
	states = ("h0" "h1" );
	position = (202 -33);
	diagnosistype = "AUXILIARY";
	DSLxSUBMODEL = "Root Submodel";
	ismapvariable = "false";
	ID = "variable1";
	label = "H";
	DSLxEXTRA_DEFINITIONxDIAGNOSIS_TYPE = "AUXILIARY";
	excludepolicy = "include whole CPT";
}
potential ( B | H )
{
	data = ((	0.16996309206255378	0.8300369079374463	)
		(	0.9697517075748878	0.03024829242511208	));
}
potential ( A | H )
{
	data = ((	0.16999377694907378	0.8300062230509263	)
		(	0.9697230233524186	0.03027697664758152	));
}
potential ( H | )
{
	data = (	0.4831506309876892	0.5168493690123108	);
}
